{
  "sizes": [
    21,
    14,
    7,
    3
  ],
  "layers": [
    {
      "0": {},
      "1": {},
      "2": {},
      "3": {},
      "4": {},
      "5": {},
      "6": {},
      "7": {},
      "8": {},
      "9": {},
      "10": {},
      "11": {},
      "12": {},
      "13": {},
      "14": {},
      "15": {},
      "16": {},
      "17": {},
      "18": {},
      "19": {},
      "20": {}
    },
    {
      "0": {
        "bias": -3.7655248641967773,
        "weights": {
          "0": -2.247377872467041,
          "1": 4.630253791809082,
          "2": -0.38653260469436646,
          "3": -4.307103633880615,
          "4": 1.470839262008667,
          "5": 2.304605484008789,
          "6": -3.576584577560425,
          "7": -0.078338623046875,
          "8": 1.6473675966262817,
          "9": 0.9441988468170166,
          "10": 2.209348440170288,
          "11": -0.03458224609494209,
          "12": 7.797420501708984,
          "13": 0.8043329119682312,
          "14": -1.0924323797225952,
          "15": 1.2111520767211914,
          "16": -1.325647234916687,
          "17": -0.1967301219701767,
          "18": -0.47981494665145874,
          "19": -0.6478345990180969,
          "20": -0.5940307378768921
        }
      },
      "1": {
        "bias": -1.5311603546142578,
        "weights": {
          "0": -0.8706544637680054,
          "1": 1.0438826084136963,
          "2": -1.078187108039856,
          "3": -0.3717785179615021,
          "4": -4.556490898132324,
          "5": 1.7217425107955933,
          "6": -2.6296634674072266,
          "7": -0.8737562894821167,
          "8": 4.567821502685547,
          "9": 2.4353256225585938,
          "10": 5.332363605499268,
          "11": -5.12126350402832,
          "12": -0.011902435682713985,
          "13": -0.44137126207351685,
          "14": -1.3155105113983154,
          "15": -0.7840167880058289,
          "16": -0.21016812324523926,
          "17": 0.5704563856124878,
          "18": 0.446330189704895,
          "19": 0.5969679355621338,
          "20": 0.5580387115478516
        }
      },
      "2": {
        "bias": -3.217202663421631,
        "weights": {
          "0": -1.9512685537338257,
          "1": 3.585500478744507,
          "2": -0.8637449145317078,
          "3": -3.0338213443756104,
          "4": -2.652808666229248,
          "5": 0.9186704158782959,
          "6": -1.3289412260055542,
          "7": 0.24962398409843445,
          "8": 4.499494552612305,
          "9": 3.7231595516204834,
          "10": 4.226828575134277,
          "11": -3.1637156009674072,
          "12": 2.7075750827789307,
          "13": -0.2768038511276245,
          "14": -1.5658957958221436,
          "15": 0.1134839579463005,
          "16": -1.067171335220337,
          "17": -0.03882918506860733,
          "18": -0.1650887280702591,
          "19": -0.04415718466043472,
          "20": -0.005598339252173901
        }
      },
      "3": {
        "bias": -6.749067306518555,
        "weights": {
          "0": -3.4667065143585205,
          "1": 1.6249059438705444,
          "2": -3.2473995685577393,
          "3": -4.21237850189209,
          "4": -10.312407493591309,
          "5": -9.547160148620605,
          "6": 8.89976978302002,
          "7": 0.3836577832698822,
          "8": 11.01430606842041,
          "9": 16.865127563476562,
          "10": 7.292529106140137,
          "11": -7.025158882141113,
          "12": -5.34943151473999,
          "13": -2.343498706817627,
          "14": -1.5053688287734985,
          "15": -0.3390269875526428,
          "16": -2.458259344100952,
          "17": -0.6372396349906921,
          "18": -0.617784857749939,
          "19": -0.759325385093689,
          "20": -0.5535829067230225
        }
      },
      "4": {
        "bias": -0.7605430483818054,
        "weights": {
          "0": -0.24565935134887695,
          "1": 0.9834320545196533,
          "2": -0.6396196484565735,
          "3": 0.24471725523471832,
          "4": -2.7610390186309814,
          "5": 2.200813055038452,
          "6": -2.767169237136841,
          "7": -0.40598711371421814,
          "8": 1.7864420413970947,
          "9": -1.3409265279769897,
          "10": 1.9929872751235962,
          "11": -1.649039626121521,
          "12": 0.435587078332901,
          "13": 2.241443395614624,
          "14": -0.4030797779560089,
          "15": -0.1745637059211731,
          "16": 0.3430253863334656,
          "17": 0.7531777024269104,
          "18": 0.441022127866745,
          "19": 0.8615262508392334,
          "20": 0.5321994423866272
        }
      },
      "5": {
        "bias": -5.754247665405273,
        "weights": {
          "0": -3.081867218017578,
          "1": 3.4174609184265137,
          "2": -1.844157099723816,
          "3": -5.077717304229736,
          "4": -4.332230091094971,
          "5": -3.2728466987609863,
          "6": 4.610116004943848,
          "7": 0.2838953137397766,
          "8": 5.802093982696533,
          "9": 12.150246620178223,
          "10": 4.408443927764893,
          "11": -0.8910225033760071,
          "12": 1.8376508951187134,
          "13": -1.08169424533844,
          "14": -1.0125664472579956,
          "15": 0.4278240501880646,
          "16": -2.77421236038208,
          "17": -0.8717004060745239,
          "18": -0.7957422733306885,
          "19": -0.7476661205291748,
          "20": -1.0021647214889526
        }
      },
      "6": {
        "bias": 0.4744425415992737,
        "weights": {
          "0": 0.22156064212322235,
          "1": -0.4664989113807678,
          "2": -0.4533538520336151,
          "3": 1.8403037786483765,
          "4": -4.330020904541016,
          "5": 3.536334753036499,
          "6": -4.436818599700928,
          "7": -0.9328793883323669,
          "8": 1.47909414768219,
          "9": -3.3386809825897217,
          "10": 2.5845766067504883,
          "11": -1.741239309310913,
          "12": -1.2527755498886108,
          "13": 6.434980869293213,
          "14": -0.036121916025877,
          "15": -0.5709181427955627,
          "16": 1.6777427196502686,
          "17": 1.3547985553741455,
          "18": 1.091805338859558,
          "19": 1.5771404504776,
          "20": 1.619443655014038
        }
      },
      "7": {
        "bias": -2.819138288497925,
        "weights": {
          "0": -1.8773231506347656,
          "1": 3.3508810997009277,
          "2": -0.897011935710907,
          "3": -2.9684715270996094,
          "4": -1.9565612077713013,
          "5": 1.6226614713668823,
          "6": -1.9180972576141357,
          "7": -0.022478505969047546,
          "8": 3.588510274887085,
          "9": 3.2082486152648926,
          "10": 2.9820666313171387,
          "11": -2.664088726043701,
          "12": 3.5686731338500977,
          "13": -0.2655561864376068,
          "14": -1.1609141826629639,
          "15": -0.0069635347463190556,
          "16": -0.9330872297286987,
          "17": -0.09380149841308594,
          "18": -0.15384681522846222,
          "19": -0.13416025042533875,
          "20": -0.32820984721183777
        }
      },
      "8": {
        "bias": -5.0895304679870605,
        "weights": {
          "0": -2.9402267932891846,
          "1": 5.651482105255127,
          "2": -0.5724791288375854,
          "3": -6.112479209899902,
          "4": 3.3878791332244873,
          "5": 0.3819049596786499,
          "6": -1.358157992362976,
          "7": -0.019617661833763123,
          "8": 0.792349100112915,
          "9": 2.9882349967956543,
          "10": 0.8262885808944702,
          "11": 2.7958312034606934,
          "12": 10.05106258392334,
          "13": 2.2690927982330322,
          "14": -1.0438897609710693,
          "15": 1.4788867235183716,
          "16": -2.2929539680480957,
          "17": -0.6407530307769775,
          "18": -0.695734441280365,
          "19": -0.7361629605293274,
          "20": -0.6673504114151001
        }
      },
      "9": {
        "bias": -1.0455317497253418,
        "weights": {
          "0": -0.7138959169387817,
          "1": 3.062037467956543,
          "2": -0.8964475393295288,
          "3": -0.0558968223631382,
          "4": -6.710019588470459,
          "5": 6.639593601226807,
          "6": -6.764762878417969,
          "7": -0.01472380105406046,
          "8": 4.098069667816162,
          "9": -3.214916229248047,
          "10": 6.52980899810791,
          "11": -5.997958183288574,
          "12": 2.2553937435150146,
          "13": -0.06285902857780457,
          "14": -1.697212815284729,
          "15": -0.6105576753616333,
          "16": 0.40606603026390076,
          "17": 0.4403722286224365,
          "18": 0.477999210357666,
          "19": 0.4911157786846161,
          "20": 0.4563344419002533
        }
      },
      "10": {
        "bias": -1.8734906911849976,
        "weights": {
          "0": -1.2183037996292114,
          "1": 2.445573568344116,
          "2": -0.6375546455383301,
          "3": -1.2614816427230835,
          "4": -3.3028082847595215,
          "5": 1.9924461841583252,
          "6": -2.3253211975097656,
          "7": -0.38100355863571167,
          "8": 3.5255706310272217,
          "9": 1.4571195840835571,
          "10": 3.790811777114868,
          "11": -3.701193332672119,
          "12": 1.2898848056793213,
          "13": -0.342456579208374,
          "14": -0.9789865612983704,
          "15": 0.07847915589809418,
          "16": -0.3803102374076843,
          "17": 0.1425231695175171,
          "18": 0.0629490464925766,
          "19": 0.13356319069862366,
          "20": 0.27485203742980957
        }
      },
      "11": {
        "bias": -1.4996334314346313,
        "weights": {
          "0": -0.6304393410682678,
          "1": 0.663013756275177,
          "2": -0.691051721572876,
          "3": -0.6603423953056335,
          "4": -1.1682249307632446,
          "5": 0.39750534296035767,
          "6": -0.6517805457115173,
          "7": -0.6480075716972351,
          "8": 0.9603659510612488,
          "9": 0.7050538659095764,
          "10": 0.8869723081588745,
          "11": -1.380265235900879,
          "12": 0.23747871816158295,
          "13": -0.05667606741189957,
          "14": -0.4074612557888031,
          "15": -0.20536328852176666,
          "16": -0.38316312432289124,
          "17": -0.09694020450115204,
          "18": -0.08346308022737503,
          "19": 0.13126496970653534,
          "20": 0.05408049747347832
        }
      },
      "12": {
        "bias": -2.5282835960388184,
        "weights": {
          "0": -1.528235673904419,
          "1": 3.200652837753296,
          "2": -1.0116931200027466,
          "3": -2.0421040058135986,
          "4": -5.440260887145996,
          "5": 2.6926143169403076,
          "6": -3.6418404579162598,
          "7": -0.2842310965061188,
          "8": 6.024996280670166,
          "9": 2.6924288272857666,
          "10": 7.097230911254883,
          "11": -5.846973419189453,
          "12": 1.8138973712921143,
          "13": -1.0164512395858765,
          "14": -1.9344292879104614,
          "15": -0.6348479986190796,
          "16": -0.4180295169353485,
          "17": 0.23484455049037933,
          "18": 0.02118770219385624,
          "19": 0.35716113448143005,
          "20": 0.18937519192695618
        }
      },
      "13": {
        "bias": -0.330314576625824,
        "weights": {
          "0": -0.25260722637176514,
          "1": 0.8642244338989258,
          "2": -0.6294130682945251,
          "3": 0.947694718837738,
          "4": -3.7704362869262695,
          "5": 3.5742757320404053,
          "6": -3.752157211303711,
          "7": -0.1977558434009552,
          "8": 2.0065371990203857,
          "9": -2.257251501083374,
          "10": 3.0129334926605225,
          "11": -2.7605884075164795,
          "12": -0.1987743228673935,
          "13": 2.624511957168579,
          "14": -0.520639955997467,
          "15": -0.55867600440979,
          "16": 0.6091962456703186,
          "17": 0.5142276287078857,
          "18": 0.5971167087554932,
          "19": 0.7105139493942261,
          "20": 0.713340699672699
        }
      }
    },
    {
      "0": {
        "bias": 4.529501438140869,
        "weights": {
          "0": -2.7674965858459473,
          "1": -1.4983938932418823,
          "2": -1.650788426399231,
          "3": -5.566728591918945,
          "4": -0.6216258406639099,
          "5": -2.14396333694458,
          "6": -0.5628967881202698,
          "7": -1.7018052339553833,
          "8": -2.640939712524414,
          "9": -1.7990460395812988,
          "10": -1.358361005783081,
          "11": -0.30454522371292114,
          "12": -2.2180137634277344,
          "13": -0.6385894417762756
        }
      },
      "1": {
        "bias": 6.177480697631836,
        "weights": {
          "0": -4.701862812042236,
          "1": 0.1939578354358673,
          "2": -1.7962807416915894,
          "3": 3.998220205307007,
          "4": -2.0431907176971436,
          "5": 2.1712749004364014,
          "6": -3.832663059234619,
          "7": -2.1751556396484375,
          "8": -4.777002334594727,
          "9": -3.9845163822174072,
          "10": -1.103285551071167,
          "11": 0.0649997889995575,
          "12": -1.5230079889297485,
          "13": -2.2609713077545166
        }
      },
      "2": {
        "bias": 4.134601593017578,
        "weights": {
          "0": -2.49871563911438,
          "1": -1.3199958801269531,
          "2": -1.8127357959747314,
          "3": -5.2562079429626465,
          "4": -0.45268309116363525,
          "5": -2.304171085357666,
          "6": -0.4031710922718048,
          "7": -1.5858113765716553,
          "8": -2.659881114959717,
          "9": -1.4538891315460205,
          "10": -1.0117806196212769,
          "11": -0.35776910185813904,
          "12": -1.9149103164672852,
          "13": -0.6745343208312988
        }
      },
      "3": {
        "bias": -3.4919002056121826,
        "weights": {
          "0": -1.2969456911087036,
          "1": 2.0448389053344727,
          "2": -0.3589524030685425,
          "3": -4.115634441375732,
          "4": 2.7353429794311523,
          "5": -5.545047760009766,
          "6": 6.9881911277771,
          "7": -0.43890053033828735,
          "8": -2.781140089035034,
          "9": 3.4729480743408203,
          "10": 1.0852528810501099,
          "11": 0.36973801255226135,
          "12": 1.3279430866241455,
          "13": 3.6804306507110596
        }
      },
      "4": {
        "bias": 7.589114189147949,
        "weights": {
          "0": -2.3780770301818848,
          "1": -3.836991310119629,
          "2": -2.968371868133545,
          "3": 1.606492280960083,
          "4": -1.069822907447815,
          "5": 2.6754801273345947,
          "6": 0.5926815271377563,
          "7": -2.7254157066345215,
          "8": -0.303149938583374,
          "9": -6.30944299697876,
          "10": -3.260470390319824,
          "11": -1.188382863998413,
          "12": -5.051205158233643,
          "13": -1.7964155673980713
        }
      },
      "5": {
        "bias": 4.934098720550537,
        "weights": {
          "0": -2.6342875957489014,
          "1": -1.8990708589553833,
          "2": -2.0726194381713867,
          "3": -5.217425346374512,
          "4": -0.7456375956535339,
          "5": -2.257981061935425,
          "6": -0.8386951088905334,
          "7": -1.7039750814437866,
          "8": -2.819976806640625,
          "9": -2.2088632583618164,
          "10": -1.414425253868103,
          "11": -0.3660583794116974,
          "12": -2.453479290008545,
          "13": -0.903638482093811
        }
      },
      "6": {
        "bias": 2.069403648376465,
        "weights": {
          "0": -1.7712481021881104,
          "1": -0.1733548641204834,
          "2": -1.0325353145599365,
          "3": -4.451145648956299,
          "4": 0.4546370804309845,
          "5": -3.5398623943328857,
          "6": 1.119820475578308,
          "7": -1.0149074792861938,
          "8": -2.1817164421081543,
          "9": 0.0021059601567685604,
          "10": -0.5492042899131775,
          "11": -0.24097880721092224,
          "12": -0.7450886368751526,
          "13": 0.5729667544364929
        }
      }
    },
    {
      "angry": {
        "bias": 2.416718006134033,
        "weights": {
          "0": -4.415485382080078,
          "1": -3.6960361003875732,
          "2": -4.250764846801758,
          "3": -5.141279220581055,
          "4": 6.429397106170654,
          "5": -4.7409467697143555,
          "6": -2.6877593994140625
        }
      },
      "sad": {
        "bias": -11.726761817932129,
        "weights": {
          "0": 4.091380596160889,
          "1": 1.2295565605163574,
          "2": 3.734046459197998,
          "3": -0.7725698947906494,
          "4": 6.624696731567383,
          "5": 3.930190086364746,
          "6": 3.236746311187744
        }
      },
      "fear": {
        "bias": 0.3878780007362366,
        "weights": {
          "0": -1.9372047185897827,
          "1": 2.180903196334839,
          "2": -1.7706773281097412,
          "3": 6.890533924102783,
          "4": -8.547329902648926,
          "5": -2.1988117694854736,
          "6": 0.08409690111875534
        }
      }
    }
  ],
  "outputLookup": true,
  "inputLookup": false,
  "activation": "sigmoid",
  "trainOpts": {
    "iterations": 50000,
    "errorThresh": 0.001,
    "log": true,
    "logPeriod": 1000,
    "learningRate": 0.9,
    "momentum": 0.1,
    "callbackPeriod": 10,
    "beta1": 0.9,
    "beta2": 0.999,
    "epsilon": 1e-8
  }
}